15 10
of -0.032407 -0.040921 -0.038077 -0.021028 -0.016475 -0.010898 -0.038013 0.007393 0.014963 0.009682
the 0.033098 -0.025094 -0.026401 0.048028 0.020160 0.043816 -0.044294 0.005915 0.039014 -0.009357
Text -0.006734 0.048539 -0.045764 -0.024440 -0.019082 0.033022 -0.022695 0.040095 0.037697 0.044349
first 0.012667 0.030067 -0.008511 0.005747 -0.020322 0.020946 0.027097 0.037546 0.037577 0.043611
made 0.036124 -0.041134 -0.020873 -0.002872 0.019930 -0.021928 0.022578 -0.007045 0.010916 0.012163
document 0.048307 0.044687 -0.015005 -0.002840 -0.026112 -0.036662 0.045076 -0.033078 0.032967 0.020998
three. -0.015080 -0.002776 0.036331 -0.017799 -0.003919 0.011107 -0.011402 -0.005277 -0.031200 0.012104
Number -0.000447 -0.031792 0.021051 0.024144 0.018733 0.000941 0.031837 -0.010254 -0.004991 0.020811
longer. 0.013819 0.004254 -0.006846 0.027983 0.039885 -0.020875 0.020354 0.035208 -0.010360 0.004608
four. -0.047687 -0.037213 -0.047198 0.009520 0.038749 -0.023925 -0.042976 0.031736 -0.029829 0.015517
document. -0.004240 0.011942 0.022039 0.013145 -0.001654 0.025455 -0.002802 0.005415 0.042368 0.020354
second -0.000785 0.031257 0.002622 0.033814 -0.016385 0.036719 0.010103 -0.003890 0.045120 0.049611
This 0.036105 -0.003982 0.047493 -0.042607 -0.048813 -0.035550 -0.027256 0.012351 -0.020851 0.004022
is -0.024747 0.001320 -0.040302 -0.039009 -0.009200 0.049652 -0.020928 0.030683 0.002002 0.020199
number -0.012817 0.044324 -0.019126 0.030697 0.049838 0.022621 0.018322 -0.038322 0.021382 -0.032798
