15 10
the 0.024972 -0.006632 -0.025927 0.048510 -0.046162 0.039687 -0.002162 0.019159 0.048148 0.018325
Text 0.031596 0.002128 -0.011745 -0.024168 0.012689 -0.007977 0.031631 -0.005800 -0.046585 0.021721
of 0.011870 -0.020037 -0.007520 -0.020396 -0.027185 0.008916 -0.023236 -0.022803 0.043701 -0.020613
three. -0.006461 0.019588 -0.014632 -0.005280 -0.042049 0.005793 0.037560 0.012516 -0.020838 0.014553
first 0.011101 0.006462 0.049036 -0.036918 0.010667 -0.026612 -0.048219 0.047956 -0.035466 0.025971
This -0.029448 0.045659 -0.040676 -0.036055 -0.045595 0.049634 0.016859 -0.040645 -0.003043 0.038454
second -0.010784 -0.013473 -0.049658 0.030546 0.017957 0.019695 -0.026752 -0.036459 -0.031008 -0.048087
longer. -0.033064 0.024695 -0.000248 0.010732 -0.034444 -0.049502 -0.029258 0.010748 -0.037729 0.040238
made 0.015928 -0.002028 0.034623 0.015674 -0.049502 0.038414 -0.037260 -0.042264 0.004889 0.006770
four. 0.028638 -0.004596 -0.022805 0.001644 0.030991 0.008391 0.019307 0.021340 0.031935 0.034276
document. -0.012603 0.016954 -0.000922 -0.025091 -0.005137 -0.034672 0.014230 -0.008920 0.021653 0.012463
is 0.004903 -0.030514 0.011616 0.031805 -0.002515 -0.043009 -0.020419 0.042403 -0.015012 -0.009284
document 0.029449 -0.015895 -0.020479 0.047799 0.009918 -0.039861 0.030203 -0.046434 0.007711 0.041748
Number 0.046259 0.032204 -0.030038 0.038520 -0.032694 0.014042 -0.005167 -0.002659 -0.001930 0.012479
number -0.007754 0.000638 0.038125 -0.015683 0.026166 -0.020845 -0.000750 0.044013 -0.011645 0.049821
