15 10
Text 0.049269 0.006738 -0.024650 0.009098 -0.024735 0.012543 -0.012234 0.011507 0.004473 0.033335
of -0.036173 -0.014964 0.042434 -0.032686 0.042313 0.018863 -0.017592 -0.023676 0.004629 -0.038628
the 0.012442 -0.040813 -0.021989 0.006850 0.012049 0.047581 0.009981 -0.036469 -0.045660 -0.031547
first 0.030755 -0.035745 -0.021826 0.022647 -0.044187 0.035919 -0.028320 -0.005310 -0.012065 0.008886
document. 0.009920 0.041556 -0.004236 0.021643 0.045543 0.008395 0.020960 -0.032969 0.010813 0.037253
second -0.038768 -0.017025 0.042458 -0.044708 0.029012 -0.043762 -0.017083 0.010788 0.001984 -0.047738
document 0.030184 0.011696 -0.033638 -0.002247 0.018860 -0.016013 -0.033547 -0.016561 0.027264 0.014442
made -0.021367 0.009071 0.046402 -0.022174 0.046247 -0.020867 0.044107 0.036867 -0.034837 0.013550
longer. 0.022643 0.036094 -0.003795 0.039002 0.005043 -0.048159 0.015011 0.015071 0.044895 0.009534
Number -0.005225 0.010593 0.037611 0.009015 -0.002541 -0.000268 0.010692 -0.036637 -0.036282 0.027940
three. 0.017740 -0.023711 -0.033479 0.011308 -0.027519 -0.041368 -0.015699 0.001877 0.018476 -0.033365
This -0.018627 -0.006875 -0.013520 -0.044796 0.027423 -0.006970 -0.047582 0.031896 0.041222 0.005944
is 0.006986 -0.027066 -0.044111 -0.015305 0.000958 -0.004620 -0.009543 0.008495 0.022932 0.036061
number -0.033420 0.015477 -0.049516 0.012997 0.047199 -0.045843 -0.046540 0.032223 0.000295 0.022325
four. 0.037671 0.016889 0.004896 0.024985 0.041774 0.015617 -0.039365 -0.023125 0.022535 0.027631
